<?xml version="1.0"?>
<opencv_storage>
<cascade>
  <stageType>BOOST</stageType>
  <featureType>LBP</featureType>
  <height>20</height>
  <width>20</width>
  <stageParams>
    <boostType>GAB</boostType>
    <minHitRate>9.9849998950958252e-001</minHitRate>
    <maxFalseAlarm>5.0000000000000000e-001</maxFalseAlarm>
    <weightTrimRate>9.4999998807907104e-001</weightTrimRate>
    <maxDepth>1</maxDepth>
    <maxWeakCount>100</maxWeakCount></stageParams>
  <featureParams>
    <maxCatCount>256</maxCatCount>
    <featSize>1</featSize></featureParams>
  <stageNum>20</stageNum>
  <stages>
    <!-- stage 0 -->
    <_>
      <maxWeakCount>3</maxWeakCount>
      <stageThreshold>-9.8945975303649902e-001</stageThreshold>
      <weakClassifiers>
        <_>
          <internalNodes>
            0 -1 22 -186581508 -33753089 -40841761 -37970479 -552993537
            -22040146 -72554017 -285765</internalNodes>
          <leafValues>
            -9.3007713556289673e-001 8.8029199838638306e-001</leafValues></_>
        <_>
          <internalNodes>
            0 -1 92 -41617428 -47918120 -302524739 -67306344 -88477761
            -100599508 -570577969 -1553</internalNodes>
          <leafValues>
            -9.0634393692016602e-001 8.1489753723144531e-001</leafValues></_>
        <_>
          <internalNodes>
            0 -1 32 -572523011 -35981383 -12743713 -34219691 -778506243
            -68035968 -372270636 -723208124</internalNodes>
          <leafValues>
            -8.4571021795272827e-001 8.4696125984191895e-001</leafValues></_></weakClassifiers></_>
    <!-- stage 1 -->
    <_>
      <maxWeakCount>2</maxWeakCount>
      <stageThreshold>-2.4921715259552002e-001</stageThreshold>
      <weakClassifiers>
        <_>
          <internalNodes>
            0 -1 48 -789252132 -13769849 -467402476 -34130937
            -2061524033 -1818525301 -1245711653 -5252097</internalNodes>
          <leafValues>
            -9.6686261892318726e-001 8.4969466924667358e-001</leafValues></_>
        <_>
          <internalNodes>
            0 -1 21 -926111964 -1014846845 -787619453 -171202357
            -783883516 -1589476977 -944782630 -2049</internalNodes>
          <leafValues>
            -9.2778056859970093e-001 7.1764546632766724e-001</leafValues></_></weakClassifiers></_>
    <!-- stage 2 -->
    <_>
      <maxWeakCount>3</maxWeakCount>
      <stageThreshold>-8.6255204677581787e-001</stageThreshold>
      <weakClassifiers>
        <_>
          <internalNodes>
            0 -1 46 -545873 -20489 2147428783 -8418369 -11730945 -16401
            -20481 -21521</internalNodes>
          <leafValues>
            -7.4168294668197632e-001 7.7505111694335938e-001</leafValues></_>
        <_>
          <internalNodes>
            0 -1 81 -606077953 -752947170 991156635 -4227010 -763184386
            -1192459608 -4162 -20387094</internalNodes>
          <leafValues>
            -7.4126219749450684e-001 6.6070175170898438e-001</leafValues></_>
        <_>
          <internalNodes>
            0 -1 109 -237508205 -137015111 1426150544 1565882449
            2106307315 -1766096461 855733168 -711984189</internalNodes>
          <leafValues>
            -7.4269503355026245e-001 6.2039315700531006e-001</leafValues></_></weakClassifiers></_>
    <!-- stage 3 -->
    <_>
      <maxWeakCount>3</maxWeakCount>
      <stageThreshold>-8.4381014108657837e-001</stageThreshold>
      <weakClassifiers>
        <_>
          <internalNodes>
            0 -1 3 -178782209 -2108553 -2893825 -54591494 -628102145
            -71631429 -73400321 -992149506</internalNodes>
          <leafValues>
            -8.0436062812805176e-001 5.9270519018173218e-001</leafValues></_>
        <_>
          <internalNodes>
            0 -1 35 -33576001 -33716865 -150098769 -36372469 -120982625
            -70196995 -70931457 -1373526</internalNodes>
          <leafValues>
            -6.8663066625595093e-001 6.6409605741500854e-001</leafValues></_>
        <_>
          <internalNodes>
            0 -1 14 -594028545 -10534210 -1937724706 -565411766 -7089409
            -67402583 -79278370 -2113330</internalNodes>
          <leafValues>
            -6.8558746576309204e-001 6.4718115329742432e-001</leafValues></_></weakClassifiers></_>
    <!-- stage 4 -->
    <_>
      <maxWeakCount>5</maxWeakCount>
      <stageThreshold>-1.0496022701263428e+000</stageThreshold>
      <weakClassifiers>
        <_>
          <internalNodes>
            0 -1 74 28872 37268 289472863 1070923997 -92228929
            -1413898112 856210351 197077147</internalNodes>
          <leafValues>
            -7.8953355550765991e-001 6.1909008026123047e-001</leafValues></_>
        <_>
          <internalNodes>
            0 -1 79 -782639619 -572679795 -2126274145 1600090783
            -779040547 -1988048503 -14830913 -1081214017</internalNodes>
          <leafValues>
            -7.0828735828399658e-001 6.6792643070220947e-001</leafValues></_>
        <_>
          <internalNodes>
            0 -1 9 -543296513 -35663377 1082511563 -19210086 -648021105
            -219950207 -340790582 -13440290</internalNodes>
          <leafValues>
            -7.0759999752044678e-001 6.3546860218048096e-001</leafValues></_>
        <_>
          <internalNodes>
            0 -1 67 301994224 -246411048 16880095 528285783 420059898
            -1180530550 -1155913025 797507738</internalNodes>
          <leafValues>
            -6.6872256994247437e-001 6.2682080268859863e-001</leafValues></_>
        <_>
          <internalNodes>
            0 -1 64 604016892 344457432 285816927 524550156 134781178
            -1165983568 -1149134145 177209352</internalNodes>
          <leafValues>
            -8.1682467460632324e-001 5.2899777889251709e-001</leafValues></_></weakClassifiers></_>
    <!-- stage 5 -->
    <_>
      <maxWeakCount>5</maxWeakCount>
      <stageThreshold>-9.4355952739715576e-001</stageThreshold>
      <weakClassifiers>
        <_>
          <internalNodes>
            0 -1 108 -208012110 -647852016 276857200 -176860160
            -106782288 -1425014562 -1424629376 -6556998</internalNodes>
          <leafValues>
            -7.1504521369934082e-001 6.3473337888717651e-001</leafValues></_>
        <_>
          <internalNodes>
            0 -1 61 -6294786 -547667705 1040966143 -82321113 -203689249
            -154435542 -75265393 -2102641</internalNodes>
          <leafValues>
            -6.9695597887039185e-001 6.5923047065734863e-001</leafValues></_>
        <_>
          <internalNodes>
            0 -1 38 -246041772 -145425499 -1048239283 -33703319
            -933119605 -1194762071 -121132373 -69214001</internalNodes>
          <leafValues>
            -7.9164618253707886e-001 5.3690254688262939e-001</leafValues></_>
        <_>
          <internalNodes>
            0 -1 103 -137834160 -678116976 1207959835 1598087184
            -1340020566 -1878523600 -1550931573 -1154753633</internalNodes>
          <leafValues>
            -6.6810750961303711e-001 6.3646787405014038e-001</leafValues></_>
        <_>
          <internalNodes>
            0 -1 107 -85985608 -1049456560 -1476324836 -1084714192
            -238556497 -1474592121 -400305525 -5445</internalNodes>
          <leafValues>
            -6.6459244489669800e-001 6.2361991405487061e-001</leafValues></_></weakClassifiers></_>
    <!-- stage 6 -->
    <_>
      <maxWeakCount>6</maxWeakCount>
      <stageThreshold>-1.5113896131515503e+000</stageThreshold>
      <weakClassifiers>
        <_>
          <internalNodes>
            0 -1 53 -540029969 -28673 -5255284 -577140788 -4177
            -70803506 -7340082 -540102774</internalNodes>
          <leafValues>
            -6.3367801904678345e-001 6.5363126993179321e-001</leafValues></_>
        <_>
          <internalNodes>
            0 -1 34 -623384850 -23478071 -436057860 -254287658
            -859258750 -1165350710 -895948114 -271649</internalNodes>
          <leafValues>
            -6.3893485069274902e-001 6.6616594791412354e-001</leafValues></_>
        <_>
          <internalNodes>
            0 -1 116 -203425345 -208994175 -2147245951 -741228542
            -1299787544 -1018516990 -1325162360 -774383428</internalNodes>
          <leafValues>
            -6.4637356996536255e-001 5.7154518365859985e-001</leafValues></_>
        <_>
          <internalNodes>
            0 -1 63 -204738066 -141570034 2101411726 -607669048
            -1281639512 -1173661686 -217465445 -9438273</internalNodes>
          <leafValues>
            -7.1723693609237671e-001 5.4868954420089722e-001</leafValues></_>
        <_>
          <internalNodes>
            0 -1 27 1665368268 1308758854 286347763 -142933671
            -2130700288 16810002 -1424979713 2147453915</internalNodes>
          <leafValues>
            -6.9845652580261230e-001 5.9091818332672119e-001</leafValues></_>
        <_>
          <internalNodes>
            0 -1 77 -271854208 -1941712384 -796798591 -1622189811
            -233653846 -1230864256 -326518390 -1615857489</internalNodes>
          <leafValues>
            -6.6055494546890259e-001 5.5003654956817627e-001</leafValues></_></weakClassifiers></_>
    <!-- stage 7 -->
    <_>
      <maxWeakCount>5</maxWeakCount>
      <stageThreshold>-1.0621695518493652e+000</stageThreshold>
      <weakClassifiers>
        <_>
          <internalNodes>
            0 -1 31 1464131583 1426096797 2141180095 -556329 -81396993
            -32593 -878712113 -13590</internalNodes>
          <leafValues>
            -7.3052138090133667e-001 5.4382902383804321e-001</leafValues></_>
        <_>
          <internalNodes>
            0 -1 12 -35651841 -539835658 261536222 -220011818 -68695083
            -304379428 -72500518 -3682610</internalNodes>
          <leafValues>
            -6.5001332759857178e-001 5.7499665021896362e-001</leafValues></_>
        <_>
          <internalNodes>
            0 -1 102 -872353826 2081749460 -732967657 -138293 -634656033
            -1142183805 -51398005 -5121</internalNodes>
          <leafValues>
            -7.7670663595199585e-001 4.4075223803520203e-001</leafValues></_>
        <_>
          <internalNodes>
            0 -1 99 -203949645 -607272960 353980880 -150746176
            -315622213 -98851710 -1690834526 -13901014</internalNodes>
          <leafValues>
            -5.8694308996200562e-001 6.0170406103134155e-001</leafValues></_>
        <_>
          <internalNodes>
            0 -1 60 -10506329 -525353 -2058248056 -5955451 -87770625
            -1984844587 -473357397 -12637526</internalNodes>
          <leafValues>
            -7.2409111261367798e-001 4.6942242980003357e-001</leafValues></_></weakClassifiers></_>
    <!-- stage 8 -->
    <_>
      <maxWeakCount>7</maxWeakCount>
      <stageThreshold>-1.0378156900405884e+000</stageThreshold>
      <weakClassifiers>
        <_>
          <internalNodes>
            0 -1 73 -1682476545 -615033857 -787148705 1970778399
            -124792578 -67177474 -35671042 -65554</internalNodes>
          <leafValues>
            -6.2428647279739380e-001 5.8031839132308960e-001</leafValues></_>
        <_>
          <internalNodes>
            0 -1 2 -488714530 -75527201 -1031111810 -2135137 -1027058368
            -67644517 -53028104 -5</internalNodes>
          <leafValues>
            -6.9056034088134766e-001 4.8702275753021240e-001</leafValues></_>
        <_>
          <internalNodes>
            0 -1 28 -69206401 -683195881 285316445 2051068282 -747900400
            -620093414 -628040758 -16580882</internalNodes>
          <leafValues>
            -6.0151439905166626e-001 5.2132606506347656e-001</leafValues></_>
        <_>
          <internalNodes>
            0 -1 58 33555026 1408379357 1900092319 2011104734 1076219
            -1158805365 789162751 731578506</internalNodes>
          <leafValues>
            -6.5252262353897095e-001 4.7529342770576477e-001</leafValues></_>
        <_>
          <internalNodes>
            0 -1 72 -750261462 1929491207 302829922 -7876449 -461905325
            -1306361852 -1320711321 -148655525</internalNodes>
          <leafValues>
            -7.0552510023117065e-001 4.4688445329666138e-001</leafValues></_>
        <_>
          <internalNodes>
            0 -1 30 -359718947 -592678982 -357682245 424685240
            -604127233 -9175076 -1365251078 -1424450886</internalNodes>
          <leafValues>
            -5.2163606882095337e-001 6.2164431810379028e-001</leafValues></_>
        <_>
          <internalNodes>
            0 -1 117 -81790307 -1878267454 1091015180 1669575400
            -354828294 -1601728384 -777082131 -573716004</internalNodes>
          <leafValues>
            -6.0714530944824219e-001 5.0757277011871338e-001</leafValues></_></weakClassifiers></_>
    <!-- stage 9 -->
    <_>
      <maxWeakCount>7</maxWeakCount>
      <stageThreshold>-1.9374876022338867e+000</stageThreshold>
      <weakClassifiers>
        <_>
          <internalNodes>
            0 -1 10 -572596225 -314497 -1991715206 -5571862 -1825395722
            -1195390790 -475999292 -2</internalNodes>
          <leafValues>
            -6.3245564699172974e-001 5.5025714635848999e-001</leafValues></_>
        <_>
          <internalNodes>
            0 -1 36 -572545025 -11435687 -1785943779 -1076518251
            -1161186817 -39510023 -51867667 -1344427333</internalNodes>
          <leafValues>
            -5.9470677375793457e-001 5.6636035442352295e-001</leafValues></_>
        <_>
          <internalNodes>
            0 -1 105 -706224781 -637939391 -687383247 -705440912
            -1305888077 -556169805 1672737680 -536894477</internalNodes>
          <leafValues>
            -5.8533698320388794e-001 5.5091792345046997e-001</leafValues></_>
        <_>
          <internalNodes>
            0 -1 4 -765483009 -71417682 1499192831 -36781874 -1996388097
            -562020189 -1182712897 -570406834</internalNodes>
          <leafValues>
            -6.6089576482772827e-001 4.4634312391281128e-001</leafValues></_>
        <_>
          <internalNodes>
            0 -1 88 -520095746 2019350976 411238855 -140954764
            -710083654 -41637704 -541882693 -33554725</internalNodes>
          <leafValues>
            -5.8673858642578125e-001 4.9385234713554382e-001</leafValues></_>
        <_>
          <internalNodes>
            0 -1 16 -243281206 -191199542 -738042602 -800799294
            -116656380 -553056510 -381450360 -76820321</internalNodes>
          <leafValues>
            -5.5012881755828857e-001 5.3982996940612793e-001</leafValues></_>
        <_>
          <internalNodes>
            0 -1 98 -577634927 -1722215293 -1660684991 488461204
            -1315392632 -308108917 -377439864 -2002190968</internalNodes>
          <leafValues>
            -5.7071888446807861e-001 5.2468180656433105e-001</leafValues></_></weakClassifiers></_>
    <!-- stage 10 -->
    <_>
      <maxWeakCount>6</maxWeakCount>
      <stageThreshold>-1.4244433641433716e+000</stageThreshold>
      <weakClassifiers>
        <_>
          <internalNodes>
            0 -1 114 -1 -536870923 -16777355 -2097291 -3 -541065296
            -539494476 -2100368</internalNodes>
          <leafValues>
            -5.0045084953308105e-001 6.2289559841156006e-001</leafValues></_>
        <_>
          <internalNodes>
            0 -1 56 1371937343 -705461253 -183206529 -684715177
            1612726289 -159235397 -81052673 2071405139</internalNodes>
          <leafValues>
            -6.3360077142715454e-001 4.7747015953063965e-001</leafValues></_>
        <_>
          <internalNodes>
            0 -1 87 -584188512 344250764 520444673 529520911 -115224150
            -1464170856 -493245301 -1347425649</internalNodes>
          <leafValues>
            -5.8047604560852051e-001 4.9144616723060608e-001</leafValues></_>
        <_>
          <internalNodes>
            0 -1 43 -129970986 -553688890 -129184002 1390266507
            1077954636 -14401303 1242114779 -4502965</internalNodes>
          <leafValues>
            -5.6392478942871094e-001 4.8122921586036682e-001</leafValues></_>
        <_>
          <internalNodes>
            0 -1 71 -271603158 -1975074561 -1065082866 -858847221
            -385654784 -2145446767 -484184022 -370173093</internalNodes>
          <leafValues>
            -6.8654704093933105e-001 4.3715107440948486e-001</leafValues></_>
        <_>
          <internalNodes>
            0 -1 8 -687353089 -86347300 -535391010 -152141570 -525622446
            -373317055 1797735360 -1921</internalNodes>
          <leafValues>
            -6.2526917457580566e-001 4.1720974445343018e-001</leafValues></_></weakClassifiers></_>
    <!-- stage 11 -->
    <_>
      <maxWeakCount>7</maxWeakCount>
      <stageThreshold>-1.0167920589447021e+000</stageThreshold>
      <weakClassifiers>
        <_>
          <internalNodes>
            0 -1 50 -682229803 -179254563 -112883329 -178914817
            -217079361 -17325876 2047287435 -12085105</internalNodes>
          <leafValues>
            -6.1704480648040771e-001 5.0843590497970581e-001</leafValues></_>
        <_>
          <internalNodes>
            0 -1 68 -713557241 -136585729 -49169329 -582499923
            -616369233 -3673893 -363599065 -11018236</internalNodes>
          <leafValues>
            -5.1444762945175171e-001 5.5679023265838623e-001</leafValues></_>
        <_>
          <internalNodes>
            0 -1 15 -52964609 -88095553 -661600034 -218257170 -322977298
            -70278797 -259274082 -672151862</internalNodes>
          <leafValues>
            -6.3466143608093262e-001 4.7495135664939880e-001</leafValues></_>
        <_>
          <internalNodes>
            0 -1 41 -497879809 -13235753 1297413375 -11258162 403225341
            -592433225 755825663 2131772484</internalNodes>
          <leafValues>
            -6.3115483522415161e-001 4.4851619005203247e-001</leafValues></_>
        <_>
          <internalNodes>
            0 -1 119 -773854209 -888296977 -1790900226 -643913262
            -606805513 -1970552110 -1244401468 -773861228</internalNodes>
          <leafValues>
            -6.2600374221801758e-001 4.7158852219581604e-001</leafValues></_>
        <_>
          <internalNodes>
            0 -1 110 -2077327194 -1495948857 -1978468013 -35808291
            -1400721217 -1165434493 -1589736517 -1918910213</internalNodes>
          <leafValues>
            -6.2184828519821167e-001 4.6228393912315369e-001</leafValues></_>
        <_>
          <internalNodes>
            0 -1 52 1056884 -1181426956 352976351 1375618259 50348697
            -23062317 998333871 1002119583</internalNodes>
          <leafValues>
            -6.0667240619659424e-001 4.9313598871231079e-001</leafValues></_></weakClassifiers></_>
    <!-- stage 12 -->
    <_>
      <maxWeakCount>6</maxWeakCount>
      <stageThreshold>-1.5286406278610229e+000</stageThreshold>
      <weakClassifiers>
        <_>
          <internalNodes>
            0 -1 85 646508424 136901396 -1660619427 -1088553985
            -1977368897 -1416687173 -339608577 -1947205633</internalNodes>
          <leafValues>
            -6.2572419643402100e-001 4.7493404150009155e-001</leafValues></_>
        <_>
          <internalNodes>
            0 -1 5 -141035521 -119630117 406919518 -1058621217 -70602141
            -620522062 -15991893 -78659845</internalNodes>
          <leafValues>
            -5.3454250097274780e-001 5.4892396926879883e-001</leafValues></_>
        <_>
          <internalNodes>
            0 -1 47 -721431083 1415148629 -1090527489 273661437
            -50463235 -654760588 -197377 -1191510593</internalNodes>
          <leafValues>
            -4.8780754208564758e-001 5.7768720388412476e-001</leafValues></_>
        <_>
          <internalNodes>
            0 -1 93 -598967556 -104037612 -79215993 -239402997
            -117654529 -72777046 -106302741 -102763797</internalNodes>
          <leafValues>
            -8.3467328548431396e-001 3.2603812217712402e-001</leafValues></_>
        <_>
          <internalNodes>
            0 -1 101 -651962496 -745543099 1159593216 -778059419
            -1333485662 -1098142477 -1316359294 -1617974353</internalNodes>
          <leafValues>
            -6.9131380319595337e-001 3.6478745937347412e-001</leafValues></_>
        <_>
          <internalNodes>
            0 -1 83 -681600581 -1179274329 453376991 -38321699
            -1103506971 -1589530360 -1919308289 -1945244787</internalNodes>
          <leafValues>
            -5.7139188051223755e-001 4.7199016809463501e-001</leafValues></_></weakClassifiers></_>
    <!-- stage 13 -->
    <_>
      <maxWeakCount>7</maxWeakCount>
      <stageThreshold>-1.8714616298675537e+000</stageThreshold>
      <weakClassifiers>
        <_>
          <internalNodes>
            0 -1 25 1885025215 -1111753890 1933646363 -33595425
            721654719 -1163936774 1066315755 -185271300</internalNodes>
          <leafValues>
            -6.4308077096939087e-001 4.2738243937492371e-001</leafValues></_>
        <_>
          <internalNodes>
            0 -1 95 -683679748 475306360 851419132 -581140036 1761843870
            -844397568 -139460673 -71566337</internalNodes>
          <leafValues>
            -5.3981536626815796e-001 4.6985638141632080e-001</leafValues></_>
        <_>
          <internalNodes>
            0 -1 86 -866518656 -1920141312 1359731457 487562637
            -1742489176 -1146507134 -611849333 -1364208213</internalNodes>
          <leafValues>
            -6.4208358526229858e-001 4.1636946797370911e-001</leafValues></_>
        <_>
          <internalNodes>
            0 -1 89 -141332222 -27852265 -1003935094 1900483211
            -263241664 436414467 -74909430 -78417909</internalNodes>
          <leafValues>
            -5.6068617105484009e-001 4.8803651332855225e-001</leafValues></_>
        <_>
          <internalNodes>
            0 -1 18 -67120001 -203533602 -1711222530 -793972082
            -90260548 -248798968 -93594673 -206054561</internalNodes>
          <leafValues>
            -5.6922399997711182e-001 4.9071845412254333e-001</leafValues></_>
        <_>
          <internalNodes>
            0 -1 44 -554770465 -138428451 -544358513 2110461645 -1048641
            -1077936146 -1081171985 -7352342</internalNodes>
          <leafValues>
            -4.4331148266792297e-001 6.4571154117584229e-001</leafValues></_>
        <_>
          <internalNodes>
            0 -1 90 136087800 1950364472 19223453 -70495784 -1953779486
            -1148714104 -1805517845 992676250</internalNodes>
          <leafValues>
            -6.2241977453231812e-001 4.7801709175109863e-001</leafValues></_></weakClassifiers></_>
    <!-- stage 14 -->
    <_>
      <maxWeakCount>9</maxWeakCount>
      <stageThreshold>-1.1185084581375122e+000</stageThreshold>
      <weakClassifiers>
        <_>
          <internalNodes>
            0 -1 24 -235420705 -71306825 -1861647869 -82651761
            1519431717 -771350519 -163331957 -851986</internalNodes>
          <leafValues>
            -5.8071750402450562e-001 4.6750903129577637e-001</leafValues></_>
        <_>
          <internalNodes>
            0 -1 13 -1004080274 -967962146 -1723842273 -2272899
            -2122064967 72153047 -343175425 1335604223</internalNodes>
          <leafValues>
            -6.6395431756973267e-001 3.8551428914070129e-001</leafValues></_>
        <_>
          <internalNodes>
            0 -1 66 -285216986 -36056069 -1527306821 -682154625
            -114066945 -506871671 -236749825 -68425233</internalNodes>
          <leafValues>
            -5.5517822504043579e-001 4.6368977427482605e-001</leafValues></_>
        <_>
          <internalNodes>
            0 -1 118 -774901009 -421280630 1476653470 -103582993
            -1018260864 -374851456 1375068372 -674237488</internalNodes>
          <leafValues>
            -5.8314794301986694e-001 4.4421887397766113e-001</leafValues></_>
        <_>
          <internalNodes>
            0 -1 23 1955903382 -73725177 -65257683 -114745277 -74478668
            -1149106174 -368344693 -1153718773</internalNodes>
          <leafValues>
            -7.3600357770919800e-001 3.3479088544845581e-001</leafValues></_>
        <_>
          <internalNodes>
            0 -1 106 -666454060 -70436 -16990339 -541164048 -1108038191
            -4292611 -1762852929 -1343247878</internalNodes>
          <leafValues>
            -4.4021803140640259e-001 6.0190343856811523e-001</leafValues></_>
        <_>
          <internalNodes>
            0 -1 29 -152643329 -153632633 -972493602 -85403425
            -871435704 -905117641 -92215782 -220214033</internalNodes>
          <leafValues>
            -5.7969838380813599e-001 4.4401019811630249e-001</leafValues></_>
        <_>
          <internalNodes>
            0 -1 33 -2133668178 -144799442 -636321211 -39454258
            310002062 -1175942846 -1432797621 -10198193</internalNodes>
          <leafValues>
            -5.8762818574905396e-001 4.6154510974884033e-001</leafValues></_>
        <_>
          <internalNodes>
            0 -1 51 -781847553 294248475 151372311 -174468641 -677581840
            327305275 792731130 257903647</internalNodes>
          <leafValues>
            -5.1218259334564209e-001 5.0873583555221558e-001</leafValues></_></weakClassifiers></_>
    <!-- stage 15 -->
    <_>
      <maxWeakCount>8</maxWeakCount>
      <stageThreshold>-1.3503969907760620e+000</stageThreshold>
      <weakClassifiers>
        <_>
          <internalNodes>
            0 -1 115 -1 -4097 -268435457 -1048716 -18443 -277219393
            -1116734027 -171</internalNodes>
          <leafValues>
            -5.0919651985168457e-001 5.4395037889480591e-001</leafValues></_>
        <_>
          <internalNodes>
            0 -1 82 -1681926153 -170438281 856101819 1641132447
            -1987710039 160256969 -1113990193 -1920415859</internalNodes>
          <leafValues>
            -6.1743742227554321e-001 4.3520838022232056e-001</leafValues></_>
        <_>
          <internalNodes>
            0 -1 84 147587704 -40078706 991402255 2145196959 -1565139969
            -1149008501 595959743 -1075900278</internalNodes>
          <leafValues>
            -5.2872318029403687e-001 4.4892996549606323e-001</leafValues></_>
        <_>
          <internalNodes>
            0 -1 59 -876089425 -51253281 571835879 -907688215 -173086289
            -1871486 -826807641 -889525074</internalNodes>
          <leafValues>
            -4.9587607383728027e-001 5.0475710630416870e-001</leafValues></_>
        <_>
          <internalNodes>
            0 -1 26 -607126537 -703603441 1112019255 1527677819
            -1287159784 -1873870070 -774322234 -542965892</internalNodes>
          <leafValues>
            -6.1365485191345215e-001 4.2292571067810059e-001</leafValues></_>
        <_>
          <internalNodes>
            0 -1 42 1119844727 1816322589 -911109369 -1546009473
            1322943247 181975058 -675657269 182403839</internalNodes>
          <leafValues>
            -7.2440254688262939e-001 3.2781714200973511e-001</leafValues></_>
        <_>
          <internalNodes>
            0 -1 91 -266286098 -85810052 -8421409 -35377177 23180791
            -2031067145 1467347647 -269003657</internalNodes>
          <leafValues>
            -4.1452434659004211e-001 5.7443511486053467e-001</leafValues></_>
        <_>
          <internalNodes>
            0 -1 17 -1360466193 -69906 -823234817 -68228382 1195689678
            -1073782787 1204768495 -1085453874</internalNodes>
          <leafValues>
            -4.6584048867225647e-001 4.9326926469802856e-001</leafValues></_></weakClassifiers></_>
    <!-- stage 16 -->
    <_>
      <maxWeakCount>8</maxWeakCount>
      <stageThreshold>-1.0859049558639526e+000</stageThreshold>
      <weakClassifiers>
        <_>
          <internalNodes>
            0 -1 97 -16809985 -265 -35 -9568311 -2133 -1090584658
            -37756280 -7602422</internalNodes>
          <leafValues>
            -4.5446348190307617e-001 5.6565654277801514e-001</leafValues></_>
        <_>
          <internalNodes>
            0 -1 49 -578816515 -1778559971 -536891393 356499451
            -34677508 -1997742946 -121725265 -1999646741</internalNodes>
          <leafValues>
            -4.2497879266738892e-001 5.8586466312408447e-001</leafValues></_>
        <_>
          <internalNodes>
            0 -1 111 -1145373768 -86850744 -1982209441 -69289464
            -1987058709 -624074586 432532456 -3165478</internalNodes>
          <leafValues>
            -4.8347234725952148e-001 4.8284935951232910e-001</leafValues></_>
        <_>
          <internalNodes>
            0 -1 19 -1 -620757397 -16843012 -788791553 -600625
            -149465489 -68690498 -8653089</internalNodes>
          <leafValues>
            -4.2642837762832642e-001 5.6502115726470947e-001</leafValues></_>
        <_>
          <internalNodes>
            0 -1 75 -1562716452 387484124 287929853 -4336548 -1114786822
            -68644663 -1418220610 1001914507</internalNodes>
          <leafValues>
            -6.2015098333358765e-001 3.8605317473411560e-001</leafValues></_>
        <_>
          <internalNodes>
            0 -1 70 -425202910 1122206843 -901684158 -527441905
            1380684593 151818 -217982054 -257952773</internalNodes>
          <leafValues>
            -6.1865818500518799e-001 3.9361563324928284e-001</leafValues></_>
        <_>
          <internalNodes>
            0 -1 57 -1662726921 2129985535 -269156354 -7 1288979676
            -1628153988 -548866820 -1074059797</internalNodes>
          <leafValues>
            -4.0472364425659180e-001 5.8213573694229126e-001</leafValues></_>
        <_>
          <internalNodes>
            0 -1 108 2035768759 -893185778 -653200128 -1259711824
            -204882980 -1155406865 -1043794976 -21236993</internalNodes>
          <leafValues>
            -6.1093080043792725e-001 3.5390728712081909e-001</leafValues></_></weakClassifiers></_>
    <!-- stage 17 -->
    <_>
      <maxWeakCount>9</maxWeakCount>
      <stageThreshold>-1.1261736154556274e+000</stageThreshold>
      <weakClassifiers>
        <_>
          <internalNodes>
            0 -1 39 1162573279 -556238595 1896144223 -332417 -1165459009
            -521131789 -1959040017 -11511981</internalNodes>
          <leafValues>
            -5.3902953863143921e-001 4.8574143648147583e-001</leafValues></_>
        <_>
          <internalNodes>
            0 -1 37 -676689 -11160097 -1315852897 -1117157931 -246352901
            -53412656 -61038629 -35874867</internalNodes>
          <leafValues>
            -5.7434511184692383e-001 4.0582743287086487e-001</leafValues></_>
        <_>
          <internalNodes>
            0 -1 109 -772015145 -607811553 1544990899 -143159536
            -660686853 -2033403471 -212601869 -137627158</internalNodes>
          <leafValues>
            -4.9292925000190735e-001 4.8292329907417297e-001</leafValues></_>
        <_>
          <internalNodes>
            0 -1 100 -2012440176 -1667614592 -1342078631 -1646816512
            -1559588205 -1986330240 -1709036870 -1946451797</internalNodes>
          <leafValues>
            -4.8866862058639526e-001 4.7886386513710022e-001</leafValues></_>
        <_>
          <internalNodes>
            0 -1 11 -222323493 -1505901474 -1641983739 -389108516
            -1702103710 -1740521396 -75252145 -614466929</internalNodes>
          <leafValues>
            -5.2698230743408203e-001 4.3297067284584045e-001</leafValues></_>
        <_>
          <internalNodes>
            0 -1 45 -1740120129 1368678866 491836812 286396768
            -383149571 -239402871 -1123435606 -1191521624</internalNodes>
          <leafValues>
            -5.5889707803726196e-001 4.0112194418907166e-001</leafValues></_>
        <_>
          <internalNodes>
            0 -1 55 35028999 -1292762623 1939412895 -290979030
            -1710063613 -1551433725 -7105765 -187384066</internalNodes>
          <leafValues>
            -6.5769517421722412e-001 3.3712890744209290e-001</leafValues></_>
        <_>
          <internalNodes>
            0 -1 20 708971697 -463339404 520693247 1573392404
            -1625739549 -1230496083 -1903199249 -1615134633</internalNodes>
          <leafValues>
            -5.4131412506103516e-001 3.9175686240196228e-001</leafValues></_>
        <_>
          <internalNodes>
            0 -1 56 1166430190 1574625869 353265791 -241470001 947930384
            -1100609428 -1929101605 1599306335</internalNodes>
          <leafValues>
            -5.4930931329727173e-001 3.9313119649887085e-001</leafValues></_></weakClassifiers></_>
    <!-- stage 18 -->
    <_>
      <maxWeakCount>8</maxWeakCount>
      <stageThreshold>-1.3778238296508789e+000</stageThreshold>
      <weakClassifiers>
        <_>
          <internalNodes>
            0 -1 6 -547627009 -18965026 -65871138 -151079682 -1725590545
            -6580041 -530799502 -6409</internalNodes>
          <leafValues>
            -5.5910545587539673e-001 4.9481621384620667e-001</leafValues></_>
        <_>
          <internalNodes>
            0 -1 112 -73402373 -676606024 -487595995 -30608524
            -371203681 -336682870 -913843235 -570438156</internalNodes>
          <leafValues>
            -5.7900363206863403e-001 4.2698466777801514e-001</leafValues></_>
        <_>
          <internalNodes>
            0 -1 54 -974655505 12697791 2107111399 -705431929 -73428593
            -1883004251 1539509007 -5519201</internalNodes>
          <leafValues>
            -4.8823478817939758e-001 4.9774003028869629e-001</leafValues></_>
        <_>
          <internalNodes>
            0 -1 96 -236205280 1929549569 -1108609104 -115214479
            -444864192 -286686933 -38146071 -273678869</internalNodes>
          <leafValues>
            -5.4147416353225708e-001 4.4330209493637085e-001</leafValues></_>
        <_>
          <internalNodes>
            0 -1 78 1091655167 131591167 -804665797 -148782592 538497215
            -5109581 -301234038 -72635730</internalNodes>
          <leafValues>
            -4.9221673607826233e-001 4.5134902000427246e-001</leafValues></_>
        <_>
          <internalNodes>
            0 -1 40 -633154241 -656421653 -66440196 -102986194
            -1703930233 -7331109 2078297063 -2735296</internalNodes>
          <leafValues>
            -5.7719820737838745e-001 3.6702898144721985e-001</leafValues></_>
        <_>
          <internalNodes>
            0 -1 65 -700235969 -695704619 -1094717867 -67813476 -215558
            -8527874 528334572 -1255484</internalNodes>
          <leafValues>
            -4.1947159171104431e-001 5.1884162425994873e-001</leafValues></_>
        <_>
          <internalNodes>
            0 -1 1 -891925292 1406982694 -973061086 -781815205
            -1246530992 -20856534 -74712109 -2440281</internalNodes>
          <leafValues>
            -5.9488701820373535e-001 3.7646910548210144e-001</leafValues></_></weakClassifiers></_>
    <!-- stage 19 -->
    <_>
      <maxWeakCount>9</maxWeakCount>
      <stageThreshold>-1.2818362712860107e+000</stageThreshold>
      <weakClassifiers>
        <_>
          <internalNodes>
            0 -1 113 -1078398032 -640363572 -934428183 -913456795
            -1184789874 -1744678774 -1918064977 -3121</internalNodes>
          <leafValues>
            -5.5363321304321289e-001 4.2365401983261108e-001</leafValues></_>
        <_>
          <internalNodes>
            0 -1 7 -24119297 -220298497 570451390 -1057043753 -241328863
            1612948576 -582374903 -740295185</internalNodes>
          <leafValues>
            -5.1975739002227783e-001 4.1732805967330933e-001</leafValues></_>
        <_>
          <internalNodes>
            0 -1 94 -141167328 312730915 -619457261 -753674799
            -1381779574 -1475720704 -817629249 -1345327729</internalNodes>
          <leafValues>
            -4.8593831062316895e-001 4.5841968059539795e-001</leafValues></_>
        <_>
          <internalNodes>
            0 -1 69 -264047713 -65887723 -721363555 -40793331 536889567
            -1301207017 654335902 1595277365</internalNodes>
          <leafValues>
            -5.1706576347351074e-001 4.4764518737792969e-001</leafValues></_>
        <_>
          <internalNodes>
            0 -1 80 -147332566 -260374513 -263214974 -393232033
            -1451404512 -1187031039 -634758622 -77348281</internalNodes>
          <leafValues>
            -6.1288958787918091e-001 3.2767650485038757e-001</leafValues></_>
        <_>
          <internalNodes>
            0 -1 76 3210460 547153909 -1388447779 -1644702089
            -2137211972 -69474119 -1105854725 1056647886</internalNodes>
          <leafValues>
            -6.4479184150695801e-001 2.9420605301856995e-001</leafValues></_>
        <_>
          <internalNodes>
            0 -1 104 358600917 -1927855728 -1949482655 -451686368
            -493629959 -71655022 -487917336 -1358239872</internalNodes>
          <leafValues>
            -6.2568467855453491e-001 3.5055813193321228e-001</leafValues></_>
        <_>
          <internalNodes>
            0 -1 0 1308757234 432038298 122437887 825913500 587225520
            -182426749 1799383999 1064501351</internalNodes>
          <leafValues>
            -5.7256984710693359e-001 3.6114513874053955e-001</leafValues></_>
        <_>
          <internalNodes>
            0 -1 62 -213789041 -780096763 -251360818 1062588679
            1025358334 -231714779 142670847 -80751861</internalNodes>
          <leafValues>
            -4.9417597055435181e-001 4.3384495377540588e-001</leafValues></_></weakClassifiers></_></stages>
  <features>
    <_>
      <rect>
        0 2 2 1</rect></_>
    <_>
      <rect>
        0 3 1 3</rect></_>
    <_>
      <rect>
        0 5 2 3</rect></_>
    <_>
      <rect>
        0 7 6 4</rect></_>
    <_>
      <rect>
        0 8 4 2</rect></_>
    <_>
      <rect>
        0 10 1 1</rect></_>
    <_>
      <rect>
        0 10 2 1</rect></_>
    <_>
      <rect>
        0 11 1 1</rect></_>
    <_>
      <rect>
        0 11 2 1</rect></_>
    <_>
      <rect>
        0 11 2 3</rect></_>
    <_>
      <rect>
        0 11 3 2</rect></_>
    <_>
      <rect>
        0 12 1 1</rect></_>
    <_>
      <rect>
        0 12 2 2</rect></_>
    <_>
      <rect>
        0 12 6 1</rect></_>
    <_>
      <rect>
        0 13 3 2</rect></_>
    <_>
      <rect>
        0 14 3 2</rect></_>
    <_>
      <rect>
        0 15 1 1</rect></_>
    <_>
      <rect>
        0 15 4 1</rect></_>
    <_>
      <rect>
        0 16 2 1</rect></_>
    <_>
      <rect>
        0 17 2 1</rect></_>
    <_>
      <rect>
        1 0 1 1</rect></_>
    <_>
      <rect>
        1 2 2 5</rect></_>
    <_>
      <rect>
        1 2 6 5</rect></_>
    <_>
      <rect>
        1 3 5 5</rect></_>
    <_>
      <rect>
        1 7 1 4</rect></_>
    <_>
      <rect>
        1 7 4 4</rect></_>
    <_>
      <rect>
        1 11 1 3</rect></_>
    <_>
      <rect>
        1 12 6 1</rect></_>
    <_>
      <rect>
        1 14 1 2</rect></_>
    <_>
      <rect>
        1 17 2 1</rect></_>
    <_>
      <rect>
        2 0 4 1</rect></_>
    <_>
      <rect>
        2 3 3 4</rect></_>
    <_>
      <rect>
        2 7 4 4</rect></_>
    <_>
      <rect>
        2 11 3 1</rect></_>
    <_>
      <rect>
        2 17 2 1</rect></_>
    <_>
      <rect>
        3 0 4 3</rect></_>
    <_>
      <rect>
        3 0 5 3</rect></_>
    <_>
      <rect>
        3 1 4 3</rect></_>
    <_>
      <rect>
        3 3 2 5</rect></_>
    <_>
      <rect>
        3 10 3 1</rect></_>
    <_>
      <rect>
        3 14 2 1</rect></_>
    <_>
      <rect>
        3 14 3 1</rect></_>
    <_>
      <rect>
        3 14 4 2</rect></_>
    <_>
      <rect>
        3 16 2 1</rect></_>
    <_>
      <rect>
        4 0 4 2</rect></_>
    <_>
      <rect>
        4 1 3 1</rect></_>
    <_>
      <rect>
        4 1 4 3</rect></_>
    <_>
      <rect>
        4 2 2 1</rect></_>
    <_>
      <rect>
        4 2 4 5</rect></_>
    <_>
      <rect>
        4 3 2 1</rect></_>
    <_>
      <rect>
        4 5 2 3</rect></_>
    <_>
      <rect>
        4 13 2 2</rect></_>
    <_>
      <rect>
        4 15 3 1</rect></_>
    <_>
      <rect>
        5 0 3 2</rect></_>
    <_>
      <rect>
        5 5 2 2</rect></_>
    <_>
      <rect>
        5 7 4 4</rect></_>
    <_>
      <rect>
        5 11 2 1</rect></_>
    <_>
      <rect>
        5 13 2 1</rect></_>
    <_>
      <rect>
        5 15 3 1</rect></_>
    <_>
      <rect>
        6 0 2 2</rect></_>
    <_>
      <rect>
        6 0 3 3</rect></_>
    <_>
      <rect>
        6 2 3 4</rect></_>
    <_>
      <rect>
        6 3 3 1</rect></_>
    <_>
      <rect>
        6 8 3 1</rect></_>
    <_>
      <rect>
        6 14 3 1</rect></_>
    <_>
      <rect>
        7 0 2 1</rect></_>
    <_>
      <rect>
        7 2 2 3</rect></_>
    <_>
      <rect>
        7 15 2 1</rect></_>
    <_>
      <rect>
        8 0 2 2</rect></_>
    <_>
      <rect>
        8 3 3 1</rect></_>
    <_>
      <rect>
        8 6 1 1</rect></_>
    <_>
      <rect>
        8 7 1 1</rect></_>
    <_>
      <rect>
        8 7 2 1</rect></_>
    <_>
      <rect>
        8 7 4 4</rect></_>
    <_>
      <rect>
        8 12 2 1</rect></_>
    <_>
      <rect>
        8 14 2 1</rect></_>
    <_>
      <rect>
        8 16 2 1</rect></_>
    <_>
      <rect>
        8 16 4 1</rect></_>
    <_>
      <rect>
        9 3 3 3</rect></_>
    <_>
      <rect>
        9 5 3 3</rect></_>
    <_>
      <rect>
        9 7 1 1</rect></_>
    <_>
      <rect>
        9 7 3 4</rect></_>
    <_>
      <rect>
        9 8 3 2</rect></_>
    <_>
      <rect>
        9 10 3 1</rect></_>
    <_>
      <rect>
        9 12 1 1</rect></_>
    <_>
      <rect>
        9 12 2 1</rect></_>
    <_>
      <rect>
        9 16 3 1</rect></_>
    <_>
      <rect>
        9 17 3 1</rect></_>
    <_>
      <rect>
        10 4 3 5</rect></_>
    <_>
      <rect>
        10 8 1 1</rect></_>
    <_>
      <rect>
        10 15 1 1</rect></_>
    <_>
      <rect>
        11 2 2 1</rect></_>
    <_>
      <rect>
        11 2 3 6</rect></_>
    <_>
      <rect>
        11 3 2 5</rect></_>
    <_>
      <rect>
        11 11 2 1</rect></_>
    <_>
      <rect>
        11 11 2 2</rect></_>
    <_>
      <rect>
        11 12 2 1</rect></_>
    <_>
      <rect>
        11 13 3 2</rect></_>
    <_>
      <rect>
        11 14 3 1</rect></_>
    <_>
      <rect>
        11 14 3 2</rect></_>
    <_>
      <rect>
        11 17 1 1</rect></_>
    <_>
      <rect>
        11 17 3 1</rect></_>
    <_>
      <rect>
        12 2 2 5</rect></_>
    <_>
      <rect>
        12 10 1 2</rect></_>
    <_>
      <rect>
        13 13 2 2</rect></_>
    <_>
      <rect>
        13 17 2 1</rect></_>
    <_>
      <rect>
        14 2 1 1</rect></_>
    <_>
      <rect>
        14 4 2 4</rect></_>
    <_>
      <rect>
        14 15 2 1</rect></_>
    <_>
      <rect>
        14 17 2 1</rect></_>
    <_>
      <rect>
        16 4 1 1</rect></_>
    <_>
      <rect>
        16 4 1 2</rect></_>
    <_>
      <rect>
        16 14 1 2</rect></_>
    <_>
      <rect>
        17 2 1 3</rect></_>
    <_>
      <rect>
        17 7 1 2</rect></_>
    <_>
      <rect>
        17 7 1 3</rect></_>
    <_>
      <rect>
        17 11 1 3</rect></_>
    <_>
      <rect>
        17 14 1 2</rect></_>
    <_>
      <rect>
        17 15 1 1</rect></_>
    <_>
      <rect>
        17 16 1 1</rect></_></features></cascade>
</opencv_storage>
